<?xml version="1.0"?>
<opencv_storage>
<cascade>
  <stageType>BOOST</stageType>
  <featureType>HAAR</featureType>
  <height>20</height>
  <width>20</width>
  <stageParams>
    <boostType>GAB</boostType>
    <minHitRate>9.9500000476837158e-01</minHitRate>
    <maxFalseAlarm>5.0000000000000000e-01</maxFalseAlarm>
    <weightTrimRate>9.4999999999999996e-01</weightTrimRate>
    <maxDepth>1</maxDepth>
    <maxWeakCount>100</maxWeakCount></stageParams>
  <featureParams>
    <maxCatCount>0</maxCatCount>
    <featSize>1</featSize>
    <mode>BASIC</mode></featureParams>
  <stageNum>9</stageNum>
  <stages>
    <!-- stage 0 -->
    <_>
      <maxWeakCount>2</maxWeakCount>
      <stageThreshold>8.3914533257484436e-02</stageThreshold>
      <weakClassifiers>
        <_>
          <internalNodes>
            0 -1 4 4.3505903333425522e-02</internalNodes>
          <leafValues>
            -7.7339899539947510e-01 8.9924430847167969e-01</leafValues></_>
        <_>
          <internalNodes>
            0 -1 37 4.1321657598018646e-02</internalNodes>
          <leafValues>
            -7.2122234106063843e-01 8.5731357336044312e-01</leafValues></_></weakClassifiers></_>
    <!-- stage 1 -->
    <_>
      <maxWeakCount>5</maxWeakCount>
      <stageThreshold>-4.2422148585319519e-01</stageThreshold>
      <weakClassifiers>
        <_>
          <internalNodes>
            0 -1 21 -1.3302086293697357e-01</internalNodes>
          <leafValues>
            8.5974025726318359e-01 -6.0930234193801880e-01</leafValues></_>
        <_>
          <internalNodes>
            0 -1 17 6.5564368851482868e-03</internalNodes>
          <leafValues>
            -6.7077493667602539e-01 6.5833473205566406e-01</leafValues></_>
        <_>
          <internalNodes>
            0 -1 33 3.3385254442691803e-02</internalNodes>
          <leafValues>
            -8.1319165229797363e-01 6.3716262578964233e-01</leafValues></_>
        <_>
          <internalNodes>
            0 -1 25 6.7459451965987682e-03</internalNodes>
          <leafValues>
            -5.1978558301925659e-01 8.5153013467788696e-01</leafValues></_>
        <_>
          <internalNodes>
            0 -1 27 6.3507934100925922e-03</internalNodes>
          <leafValues>
            -4.4569581747055054e-01 8.5972338914871216e-01</leafValues></_></weakClassifiers></_>
    <!-- stage 2 -->
    <_>
      <maxWeakCount>2</maxWeakCount>
      <stageThreshold>2.2049058228731155e-02</stageThreshold>
      <weakClassifiers>
        <_>
          <internalNodes>
            0 -1 7 -5.6623801589012146e-02</internalNodes>
          <leafValues>
            7.7674418687820435e-01 -7.8823530673980713e-01</leafValues></_>
        <_>
          <internalNodes>
            0 -1 18 -7.7628297731280327e-03</internalNodes>
          <leafValues>
            8.1028437614440918e-01 -4.9225488305091858e-01</leafValues></_></weakClassifiers></_>
    <!-- stage 3 -->
    <_>
      <maxWeakCount>5</maxWeakCount>
      <stageThreshold>-7.7258032560348511e-01</stageThreshold>
      <weakClassifiers>
        <_>
          <internalNodes>
            0 -1 40 -2.7592401951551437e-02</internalNodes>
          <leafValues>
            7.4761903285980225e-01 -6.3333332538604736e-01</leafValues></_>
        <_>
          <internalNodes>
            0 -1 23 -1.7122816294431686e-02</internalNodes>
          <leafValues>
            7.2169429063796997e-01 -5.7719820737838745e-01</leafValues></_>
        <_>
          <internalNodes>
            0 -1 1 6.3054330646991730e-02</internalNodes>
          <leafValues>
            -5.8291167020797729e-01 6.4174169301986694e-01</leafValues></_>
        <_>
          <internalNodes>
            0 -1 32 6.3309572637081146e-02</internalNodes>
          <leafValues>
            -8.0000013113021851e-01 4.4739028811454773e-01</leafValues></_>
        <_>
          <internalNodes>
            0 -1 6 -9.5409154891967773e-03</internalNodes>
          <leafValues>
            5.7347261905670166e-01 -6.0586577653884888e-01</leafValues></_></weakClassifiers></_>
    <!-- stage 4 -->
    <_>
      <maxWeakCount>4</maxWeakCount>
      <stageThreshold>-1.0508915185928345e+00</stageThreshold>
      <weakClassifiers>
        <_>
          <internalNodes>
            0 -1 0 3.4358698874711990e-02</internalNodes>
          <leafValues>
            -5.9748429059982300e-01 6.6893422603607178e-01</leafValues></_>
        <_>
          <internalNodes>
            0 -1 22 -4.6730846166610718e-02</internalNodes>
          <leafValues>
            5.2321970462799072e-01 -6.8335902690887451e-01</leafValues></_>
        <_>
          <internalNodes>
            0 -1 19 1.0509617626667023e-02</internalNodes>
          <leafValues>
            -4.7394469380378723e-01 6.9684439897537231e-01</leafValues></_>
        <_>
          <internalNodes>
            0 -1 9 1.1661386117339134e-02</internalNodes>
          <leafValues>
            -5.6252199411392212e-01 5.2888995409011841e-01</leafValues></_></weakClassifiers></_>
    <!-- stage 5 -->
    <_>
      <maxWeakCount>6</maxWeakCount>
      <stageThreshold>-1.1854981184005737e+00</stageThreshold>
      <weakClassifiers>
        <_>
          <internalNodes>
            0 -1 8 4.3209227733314037e-03</internalNodes>
          <leafValues>
            -6.0000002384185791e-01 6.4444446563720703e-01</leafValues></_>
        <_>
          <internalNodes>
            0 -1 36 5.4418656975030899e-02</internalNodes>
          <leafValues>
            -5.9018152952194214e-01 6.3012933731079102e-01</leafValues></_>
        <_>
          <internalNodes>
            0 -1 28 8.5655394941568375e-03</internalNodes>
          <leafValues>
            -4.7445151209831238e-01 6.3684910535812378e-01</leafValues></_>
        <_>
          <internalNodes>
            0 -1 34 5.2409932017326355e-02</internalNodes>
          <leafValues>
            -6.8518370389938354e-01 4.3178805708885193e-01</leafValues></_>
        <_>
          <internalNodes>
            0 -1 15 -1.9049006514251232e-03</internalNodes>
          <leafValues>
            3.6558443307876587e-01 -7.5035792589187622e-01</leafValues></_>
        <_>
          <internalNodes>
            0 -1 30 -9.5884799957275391e-03</internalNodes>
          <leafValues>
            5.9663319587707520e-01 -4.4673964381217957e-01</leafValues></_></weakClassifiers></_>
    <!-- stage 6 -->
    <_>
      <maxWeakCount>6</maxWeakCount>
      <stageThreshold>-9.2590039968490601e-01</stageThreshold>
      <weakClassifiers>
        <_>
          <internalNodes>
            0 -1 24 -1.6125231981277466e-02</internalNodes>
          <leafValues>
            6.7554479837417603e-01 -4.2245990037918091e-01</leafValues></_>
        <_>
          <internalNodes>
            0 -1 29 1.1827208101749420e-02</internalNodes>
          <leafValues>
            -4.2403167486190796e-01 7.1603357791900635e-01</leafValues></_>
        <_>
          <internalNodes>
            0 -1 41 -4.3635867536067963e-02</internalNodes>
          <leafValues>
            5.0631272792816162e-01 -5.5529719591140747e-01</leafValues></_>
        <_>
          <internalNodes>
            0 -1 5 5.7432256639003754e-02</internalNodes>
          <leafValues>
            -3.4851664304733276e-01 7.7645742893218994e-01</leafValues></_>
        <_>
          <internalNodes>
            0 -1 13 2.7907246258109808e-03</internalNodes>
          <leafValues>
            -6.2874782085418701e-01 3.5495761036872864e-01</leafValues></_>
        <_>
          <internalNodes>
            0 -1 38 4.4677238911390305e-03</internalNodes>
          <leafValues>
            -6.4914423227310181e-01 3.9154294133186340e-01</leafValues></_></weakClassifiers></_>
    <!-- stage 7 -->
    <_>
      <maxWeakCount>6</maxWeakCount>
      <stageThreshold>-8.7148863077163696e-01</stageThreshold>
      <weakClassifiers>
        <_>
          <internalNodes>
            0 -1 26 3.5257852869108319e-04</internalNodes>
          <leafValues>
            -4.7368422150611877e-01 6.0714286565780640e-01</leafValues></_>
        <_>
          <internalNodes>
            0 -1 20 -3.8811557460576296e-03</internalNodes>
          <leafValues>
            6.1115336418151855e-01 -4.1882297396659851e-01</leafValues></_>
        <_>
          <internalNodes>
            0 -1 36 7.7634207904338837e-02</internalNodes>
          <leafValues>
            -4.5268711447715759e-01 5.8383423089981079e-01</leafValues></_>
        <_>
          <internalNodes>
            0 -1 31 -7.1937437169253826e-03</internalNodes>
          <leafValues>
            6.3357824087142944e-01 -3.8013389706611633e-01</leafValues></_>
        <_>
          <internalNodes>
            0 -1 16 2.4028462357819080e-03</internalNodes>
          <leafValues>
            -6.8337655067443848e-01 4.0495961904525757e-01</leafValues></_>
        <_>
          <internalNodes>
            0 -1 2 8.6398281157016754e-02</internalNodes>
          <leafValues>
            -5.8109641075134277e-01 4.8274755477905273e-01</leafValues></_></weakClassifiers></_>
    <!-- stage 8 -->
    <_>
      <maxWeakCount>7</maxWeakCount>
      <stageThreshold>-1.1543174982070923e+00</stageThreshold>
      <weakClassifiers>
        <_>
          <internalNodes>
            0 -1 14 9.1038793325424194e-03</internalNodes>
          <leafValues>
            -1.9117647409439087e-01 7.6829266548156738e-01</leafValues></_>
        <_>
          <internalNodes>
            0 -1 10 5.9952322772005573e-05</internalNodes>
          <leafValues>
            3.9538225531578064e-01 -6.8987202644348145e-01</leafValues></_>
        <_>
          <internalNodes>
            0 -1 3 9.4035059213638306e-02</internalNodes>
          <leafValues>
            -4.1711598634719849e-01 5.2046251296997070e-01</leafValues></_>
        <_>
          <internalNodes>
            0 -1 35 4.8570327460765839e-02</internalNodes>
          <leafValues>
            -4.6439498662948608e-01 4.5191004872322083e-01</leafValues></_>
        <_>
          <internalNodes>
            0 -1 12 -1.2521252036094666e-02</internalNodes>
          <leafValues>
            4.4651126861572266e-01 -4.6319109201431274e-01</leafValues></_>
        <_>
          <internalNodes>
            0 -1 11 -1.0261371789965779e-04</internalNodes>
          <leafValues>
            -5.8479893207550049e-01 3.5670387744903564e-01</leafValues></_>
        <_>
          <internalNodes>
            0 -1 39 2.2388817742466927e-02</internalNodes>
          <leafValues>
            -3.8849145174026489e-01 5.4299247264862061e-01</leafValues></_></weakClassifiers></_></stages>
  <features>
    <_>
      <rects>
        <_>
          0 4 4 13 -1.</_>
        <_>
          2 4 2 13 2.</_></rects>
      <tilted>0</tilted></_>
    <_>
      <rects>
        <_>
          0 6 6 13 -1.</_>
        <_>
          3 6 3 13 2.</_></rects>
      <tilted>0</tilted></_>
    <_>
      <rects>
        <_>
          0 10 9 7 -1.</_>
        <_>
          3 10 3 7 3.</_></rects>
      <tilted>0</tilted></_>
    <_>
      <rects>
        <_>
          1 4 6 9 -1.</_>
        <_>
          3 4 2 9 3.</_></rects>
      <tilted>0</tilted></_>
    <_>
      <rects>
        <_>
          1 6 6 9 -1.</_>
        <_>
          3 6 2 9 3.</_></rects>
      <tilted>0</tilted></_>
    <_>
      <rects>
        <_>
          1 8 6 4 -1.</_>
        <_>
          3 8 2 4 3.</_></rects>
      <tilted>0</tilted></_>
    <_>
      <rects>
        <_>
          2 2 6 6 -1.</_>
        <_>
          2 2 3 3 2.</_>
        <_>
          5 5 3 3 2.</_></rects>
      <tilted>0</tilted></_>
    <_>
      <rects>
        <_>
          2 6 8 8 -1.</_>
        <_>
          6 6 4 8 2.</_></rects>
      <tilted>0</tilted></_>
    <_>
      <rects>
        <_>
          2 10 16 9 -1.</_>
        <_>
          2 13 16 3 3.</_></rects>
      <tilted>0</tilted></_>
    <_>
      <rects>
        <_>
          3 11 4 6 -1.</_>
        <_>
          3 11 2 3 2.</_>
        <_>
          5 14 2 3 2.</_></rects>
      <tilted>0</tilted></_>
    <_>
      <rects>
        <_>
          3 12 1 2 -1.</_>
        <_>
          3 13 1 1 2.</_></rects>
      <tilted>0</tilted></_>
    <_>
      <rects>
        <_>
          3 12 1 3 -1.</_>
        <_>
          3 13 1 1 3.</_></rects>
      <tilted>0</tilted></_>
    <_>
      <rects>
        <_>
          3 18 13 2 -1.</_>
        <_>
          3 19 13 1 2.</_></rects>
      <tilted>0</tilted></_>
    <_>
      <rects>
        <_>
          4 0 2 9 -1.</_>
        <_>
          4 3 2 3 3.</_></rects>
      <tilted>0</tilted></_>
    <_>
      <rects>
        <_>
          4 0 9 2 -1.</_>
        <_>
          4 1 9 1 2.</_></rects>
      <tilted>0</tilted></_>
    <_>
      <rects>
        <_>
          4 5 4 9 -1.</_>
        <_>
          4 8 4 3 3.</_></rects>
      <tilted>0</tilted></_>
    <_>
      <rects>
        <_>
          4 11 3 4 -1.</_>
        <_>
          4 13 3 2 2.</_></rects>
      <tilted>0</tilted></_>
    <_>
      <rects>
        <_>
          4 12 4 8 -1.</_>
        <_>
          4 12 2 4 2.</_>
        <_>
          6 16 2 4 2.</_></rects>
      <tilted>0</tilted></_>
    <_>
      <rects>
        <_>
          4 18 8 2 -1.</_>
        <_>
          4 19 8 1 2.</_></rects>
      <tilted>0</tilted></_>
    <_>
      <rects>
        <_>
          5 0 7 2 -1.</_>
        <_>
          5 1 7 1 2.</_></rects>
      <tilted>0</tilted></_>
    <_>
      <rects>
        <_>
          5 1 2 6 -1.</_>
        <_>
          5 1 1 3 2.</_>
        <_>
          6 4 1 3 2.</_></rects>
      <tilted>0</tilted></_>
    <_>
      <rects>
        <_>
          5 1 9 18 -1.</_>
        <_>
          5 7 9 6 3.</_></rects>
      <tilted>0</tilted></_>
    <_>
      <rects>
        <_>
          5 2 11 8 -1.</_>
        <_>
          5 6 11 4 2.</_></rects>
      <tilted>0</tilted></_>
    <_>
      <rects>
        <_>
          5 4 2 12 -1.</_>
        <_>
          5 8 2 4 3.</_></rects>
      <tilted>0</tilted></_>
    <_>
      <rects>
        <_>
          5 4 10 4 -1.</_>
        <_>
          5 6 10 2 2.</_></rects>
      <tilted>0</tilted></_>
    <_>
      <rects>
        <_>
          6 0 6 2 -1.</_>
        <_>
          6 1 6 1 2.</_></rects>
      <tilted>0</tilted></_>
    <_>
      <rects>
        <_>
          6 14 1 6 -1.</_>
        <_>
          6 16 1 2 3.</_></rects>
      <tilted>0</tilted></_>
    <_>
      <rects>
        <_>
          6 17 5 3 -1.</_>
        <_>
          6 18 5 1 3.</_></rects>
      <tilted>0</tilted></_>
    <_>
      <rects>
        <_>
          7 0 11 2 -1.</_>
        <_>
          7 1 11 1 2.</_></rects>
      <tilted>0</tilted></_>
    <_>
      <rects>
        <_>
          7 15 6 4 -1.</_>
        <_>
          7 17 6 2 2.</_></rects>
      <tilted>0</tilted></_>
    <_>
      <rects>
        <_>
          7 18 10 2 -1.</_>
        <_>
          7 19 10 1 2.</_></rects>
      <tilted>0</tilted></_>
    <_>
      <rects>
        <_>
          8 18 5 2 -1.</_>
        <_>
          8 19 5 1 2.</_></rects>
      <tilted>0</tilted></_>
    <_>
      <rects>
        <_>
          10 6 8 8 -1.</_>
        <_>
          14 6 4 8 2.</_></rects>
      <tilted>0</tilted></_>
    <_>
      <rects>
        <_>
          12 6 6 7 -1.</_>
        <_>
          15 6 3 7 2.</_></rects>
      <tilted>0</tilted></_>
    <_>
      <rects>
        <_>
          12 6 6 8 -1.</_>
        <_>
          15 6 3 8 2.</_></rects>
      <tilted>0</tilted></_>
    <_>
      <rects>
        <_>
          12 7 6 5 -1.</_>
        <_>
          15 7 3 5 2.</_></rects>
      <tilted>0</tilted></_>
    <_>
      <rects>
        <_>
          13 7 6 7 -1.</_>
        <_>
          15 7 2 7 3.</_></rects>
      <tilted>0</tilted></_>
    <_>
      <rects>
        <_>
          13 7 6 8 -1.</_>
        <_>
          15 7 2 8 3.</_></rects>
      <tilted>0</tilted></_>
    <_>
      <rects>
        <_>
          14 10 5 9 -1.</_>
        <_>
          14 13 5 3 3.</_></rects>
      <tilted>0</tilted></_>
    <_>
      <rects>
        <_>
          14 13 6 2 -1.</_>
        <_>
          16 13 2 2 3.</_></rects>
      <tilted>0</tilted></_>
    <_>
      <rects>
        <_>
          16 3 4 13 -1.</_>
        <_>
          18 3 2 13 2.</_></rects>
      <tilted>0</tilted></_>
    <_>
      <rects>
        <_>
          16 4 4 12 -1.</_>
        <_>
          18 4 2 12 2.</_></rects>
      <tilted>0</tilted></_></features></cascade>
</opencv_storage>
