<?xml version="1.0"?>
<opencv_storage>
<stage1>
  <maxWeakCount>5</maxWeakCount>
  <stageThreshold>-4.2422148585319519e-01</stageThreshold>
  <weakClassifiers>
    <_>
      <internalNodes>
        0 -1 35162 -1.3302086293697357e-01</internalNodes>
      <leafValues>
        8.5974025726318359e-01 -6.0930234193801880e-01</leafValues></_>
    <_>
      <internalNodes>
        0 -1 33237 6.5564368851482868e-03</internalNodes>
      <leafValues>
        -6.7077493667602539e-01 6.5833473205566406e-01</leafValues></_>
    <_>
      <internalNodes>
        0 -1 67362 3.3385254442691803e-02</internalNodes>
      <leafValues>
        -8.1319165229797363e-01 6.3716262578964233e-01</leafValues></_>
    <_>
      <internalNodes>
        0 -1 40166 6.7459451965987682e-03</internalNodes>
      <leafValues>
        -5.1978558301925659e-01 8.5153013467788696e-01</leafValues></_>
    <_>
      <internalNodes>
        0 -1 45063 6.3507934100925922e-03</internalNodes>
      <leafValues>
        -4.4569581747055054e-01 8.5972338914871216e-01</leafValues></_></weakClassifiers></stage1>
</opencv_storage>
