<?xml version="1.0"?>
<opencv_storage>
<stage3>
  <maxWeakCount>5</maxWeakCount>
  <stageThreshold>-7.7258032560348511e-01</stageThreshold>
  <weakClassifiers>
    <_>
      <internalNodes>
        0 -1 75669 -2.7592401951551437e-02</internalNodes>
      <leafValues>
        7.4761903285980225e-01 -6.3333332538604736e-01</leafValues></_>
    <_>
      <internalNodes>
        0 -1 36286 -1.7122816294431686e-02</internalNodes>
      <leafValues>
        7.2169429063796997e-01 -5.7719820737838745e-01</leafValues></_>
    <_>
      <internalNodes>
        0 -1 4004 6.3054330646991730e-02</internalNodes>
      <leafValues>
        -5.8291167020797729e-01 6.4174169301986694e-01</leafValues></_>
    <_>
      <internalNodes>
        0 -1 60693 6.3309572637081146e-02</internalNodes>
      <leafValues>
        -8.0000013113021851e-01 4.4739028811454773e-01</leafValues></_>
    <_>
      <internalNodes>
        0 -1 16215 -9.5409154891967773e-03</internalNodes>
      <leafValues>
        5.7347261905670166e-01 -6.0586577653884888e-01</leafValues></_></weakClassifiers></stage3>
</opencv_storage>
